<?xml version="1.0"?>
<opencv_storage>
<cascade>
  <stageType>BOOST</stageType>
  <featureType>HAAR</featureType>
  <height>20</height>
  <width>10</width>
  <stageParams>
    <boostType>GAB</boostType>
    <minHitRate>9.9500000476837158e-01</minHitRate>
    <maxFalseAlarm>5.0000000000000000e-01</maxFalseAlarm>
    <weightTrimRate>9.4999999999999996e-01</weightTrimRate>
    <maxDepth>1</maxDepth>
    <maxWeakCount>100</maxWeakCount></stageParams>
  <featureParams>
    <maxCatCount>0</maxCatCount>
    <featSize>1</featSize>
    <mode>BASIC</mode></featureParams>
  <stageNum>6</stageNum>
  <stages>
    <!-- stage 0 -->
    <_>
      <maxWeakCount>3</maxWeakCount>
      <stageThreshold>-1.3080240488052368e+00</stageThreshold>
      <weakClassifiers>
        <_>
          <internalNodes>
            0 -1 4 -1.4903256297111511e-01</internalNodes>
          <leafValues>
            7.1428573131561279e-01 -9.6059113740921021e-01</leafValues></_>
        <_>
          <internalNodes>
            0 -1 17 1.1273784562945366e-02</internalNodes>
          <leafValues>
            -9.6452969312667847e-01 4.9865448474884033e-01</leafValues></_>
        <_>
          <internalNodes>
            0 -1 6 4.2730383574962616e-02</internalNodes>
          <leafValues>
            -8.4608739614486694e-01 9.0234905481338501e-01</leafValues></_></weakClassifiers></_>
    <!-- stage 1 -->
    <_>
      <maxWeakCount>3</maxWeakCount>
      <stageThreshold>-1.3073484897613525e+00</stageThreshold>
      <weakClassifiers>
        <_>
          <internalNodes>
            0 -1 9 4.5881167054176331e-02</internalNodes>
          <leafValues>
            -9.4152045249938965e-01 6.6666668653488159e-01</leafValues></_>
        <_>
          <internalNodes>
            0 -1 1 2.7255544438958168e-02</internalNodes>
          <leafValues>
            -8.6657589673995972e-01 5.7913929224014282e-01</leafValues></_>
        <_>
          <internalNodes>
            0 -1 2 -5.9798527508974075e-03</internalNodes>
          <leafValues>
            5.0074785947799683e-01 -8.0839914083480835e-01</leafValues></_></weakClassifiers></_>
    <!-- stage 2 -->
    <_>
      <maxWeakCount>3</maxWeakCount>
      <stageThreshold>-1.6500803232192993e+00</stageThreshold>
      <weakClassifiers>
        <_>
          <internalNodes>
            0 -1 8 2.3646879196166992e-01</internalNodes>
          <leafValues>
            -9.2657005786895752e-01 6.0000002384185791e-01</leafValues></_>
        <_>
          <internalNodes>
            0 -1 10 7.3433563113212585e-02</internalNodes>
          <leafValues>
            -8.5659545660018921e-01 1.8661540746688843e-01</leafValues></_>
        <_>
          <internalNodes>
            0 -1 12 -9.2335063964128494e-03</internalNodes>
          <leafValues>
            2.8529357910156250e-01 -9.1012567281723022e-01</leafValues></_></weakClassifiers></_>
    <!-- stage 3 -->
    <_>
      <maxWeakCount>4</maxWeakCount>
      <stageThreshold>-2.1469311714172363e+00</stageThreshold>
      <weakClassifiers>
        <_>
          <internalNodes>
            0 -1 19 -3.2933153212070465e-02</internalNodes>
          <leafValues>
            8.4615385532379150e-01 -9.2671167850494385e-01</leafValues></_>
        <_>
          <internalNodes>
            0 -1 7 -5.8742322027683258e-02</internalNodes>
          <leafValues>
            4.3584182858467102e-01 -7.6711982488632202e-01</leafValues></_>
        <_>
          <internalNodes>
            0 -1 0 -3.1759161502122879e-02</internalNodes>
          <leafValues>
            4.4163414835929871e-01 -7.9663866758346558e-01</leafValues></_>
        <_>
          <internalNodes>
            0 -1 16 -2.0198964048177004e-03</internalNodes>
          <leafValues>
            3.4353899955749512e-01 -9.4109952449798584e-01</leafValues></_></weakClassifiers></_>
    <!-- stage 4 -->
    <_>
      <maxWeakCount>3</maxWeakCount>
      <stageThreshold>-1.3373866081237793e+00</stageThreshold>
      <weakClassifiers>
        <_>
          <internalNodes>
            0 -1 14 1.6063323616981506e-01</internalNodes>
          <leafValues>
            -9.2478305101394653e-01 6.9230771064758301e-01</leafValues></_>
        <_>
          <internalNodes>
            0 -1 11 -1.3139829039573669e-01</internalNodes>
          <leafValues>
            4.2792782187461853e-01 -7.6889175176620483e-01</leafValues></_>
        <_>
          <internalNodes>
            0 -1 18 1.7224748153239489e-03</internalNodes>
          <leafValues>
            -8.0138742923736572e-01 3.5628816485404968e-01</leafValues></_></weakClassifiers></_>
    <!-- stage 5 -->
    <_>
      <maxWeakCount>4</maxWeakCount>
      <stageThreshold>-1.9870772361755371e+00</stageThreshold>
      <weakClassifiers>
        <_>
          <internalNodes>
            0 -1 15 2.0790591835975647e-01</internalNodes>
          <leafValues>
            -9.2485547065734863e-01 8.3333331346511841e-01</leafValues></_>
        <_>
          <internalNodes>
            0 -1 3 3.7400756031274796e-02</internalNodes>
          <leafValues>
            -8.1599384546279907e-01 1.2018463760614395e-01</leafValues></_>
        <_>
          <internalNodes>
            0 -1 5 1.1118130758404732e-02</internalNodes>
          <leafValues>
            -5.6141990423202515e-01 6.7332780361175537e-01</leafValues></_>
        <_>
          <internalNodes>
            0 -1 13 1.0942965745925903e-03</internalNodes>
          <leafValues>
            -1. 3.1519198417663574e-01</leafValues></_></weakClassifiers></_></stages>
  <features>
    <_>
      <rects>
        <_>
          0 5 6 10 -1.</_>
        <_>
          0 5 3 5 2.</_>
        <_>
          3 10 3 5 2.</_></rects>
      <tilted>0</tilted></_>
    <_>
      <rects>
        <_>
          0 6 2 6 -1.</_>
        <_>
          1 6 1 6 2.</_></rects>
      <tilted>0</tilted></_>
    <_>
      <rects>
        <_>
          0 14 4 2 -1.</_>
        <_>
          0 14 2 1 2.</_>
        <_>
          2 15 2 1 2.</_></rects>
      <tilted>0</tilted></_>
    <_>
      <rects>
        <_>
          1 5 4 4 -1.</_>
        <_>
          3 5 2 4 2.</_></rects>
      <tilted>0</tilted></_>
    <_>
      <rects>
        <_>
          1 9 8 6 -1.</_>
        <_>
          1 11 8 2 3.</_></rects>
      <tilted>0</tilted></_>
    <_>
      <rects>
        <_>
          1 13 1 3 -1.</_>
        <_>
          1 14 1 1 3.</_></rects>
      <tilted>0</tilted></_>
    <_>
      <rects>
        <_>
          1 13 7 3 -1.</_>
        <_>
          1 14 7 1 3.</_></rects>
      <tilted>0</tilted></_>
    <_>
      <rects>
        <_>
          1 14 8 2 -1.</_>
        <_>
          1 15 8 1 2.</_></rects>
      <tilted>0</tilted></_>
    <_>
      <rects>
        <_>
          2 0 3 10 -1.</_>
        <_>
          2 5 3 5 2.</_></rects>
      <tilted>0</tilted></_>
    <_>
      <rects>
        <_>
          2 4 7 2 -1.</_>
        <_>
          2 5 7 1 2.</_></rects>
      <tilted>0</tilted></_>
    <_>
      <rects>
        <_>
          2 5 6 9 -1.</_>
        <_>
          4 5 2 9 3.</_></rects>
      <tilted>0</tilted></_>
    <_>
      <rects>
        <_>
          2 5 8 4 -1.</_>
        <_>
          6 5 4 4 2.</_></rects>
      <tilted>0</tilted></_>
    <_>
      <rects>
        <_>
          2 7 1 6 -1.</_>
        <_>
          2 10 1 3 2.</_></rects>
      <tilted>0</tilted></_>
    <_>
      <rects>
        <_>
          2 13 1 2 -1.</_>
        <_>
          2 14 1 1 2.</_></rects>
      <tilted>0</tilted></_>
    <_>
      <rects>
        <_>
          3 0 2 10 -1.</_>
        <_>
          3 5 2 5 2.</_></rects>
      <tilted>0</tilted></_>
    <_>
      <rects>
        <_>
          3 1 3 10 -1.</_>
        <_>
          3 6 3 5 2.</_></rects>
      <tilted>0</tilted></_>
    <_>
      <rects>
        <_>
          4 7 4 6 -1.</_>
        <_>
          4 7 2 3 2.</_>
        <_>
          6 10 2 3 2.</_></rects>
      <tilted>0</tilted></_>
    <_>
      <rects>
        <_>
          6 12 3 2 -1.</_>
        <_>
          6 13 3 1 2.</_></rects>
      <tilted>0</tilted></_>
    <_>
      <rects>
        <_>
          7 8 3 1 -1.</_>
        <_>
          8 8 1 1 3.</_></rects>
      <tilted>0</tilted></_>
    <_>
      <rects>
        <_>
          9 3 1 4 -1.</_>
        <_>
          9 5 1 2 2.</_></rects>
      <tilted>0</tilted></_></features></cascade>
</opencv_storage>
